digraph Tree {
node [shape=box, style="filled, rounded", color="black", fontname=helvetica] ;
edge [fontname=helvetica] ;
0 [label="X[0] <= 0.992\nmse = 3.968\nsamples = 200\nvalue = 6.971", fillcolor="#f3c7a7"] ;
1 [label="X[0] <= 0.639\nmse = 1.474\nsamples = 101\nvalue = 5.404", fillcolor="#fdf4ee"] ;
0 -> 1 [labeldistance=2.5, labelangle=45, headlabel="True"] ;
2 [label="mse = 1.152\nsamples = 73\nvalue = 5.019", fillcolor="#ffffff"] ;
1 -> 2 ;
3 [label="mse = 0.917\nsamples = 28\nvalue = 6.409", fillcolor="#f7d7c1"] ;
1 -> 3 ;
4 [label="X[0] <= 1.544\nmse = 1.448\nsamples = 99\nvalue = 8.571", fillcolor="#ea995f"] ;
0 -> 4 [labeldistance=2.5, labelangle=-45, headlabel="False"] ;
5 [label="mse = 0.944\nsamples = 53\nvalue = 7.832", fillcolor="#eeaf81"] ;
4 -> 5 ;
6 [label="mse = 0.675\nsamples = 46\nvalue = 9.422", fillcolor="#e58139"] ;
4 -> 6 ;
}